<?xml version="1.0"?>
<opencv_storage>
<cascade>
  <stageType>BOOST</stageType>
  <featureType>HAAR</featureType>
  <height>24</height>
  <width>24</width>
  <stageParams>
    <boostType>GAB</boostType>
    <minHitRate>9.9500000476837158e-01</minHitRate>
    <maxFalseAlarm>5.0000000000000000e-01</maxFalseAlarm>
    <weightTrimRate>9.4999999999999996e-01</weightTrimRate>
    <maxDepth>1</maxDepth>
    <maxWeakCount>100</maxWeakCount></stageParams>
  <featureParams>
    <maxCatCount>0</maxCatCount>
    <featSize>1</featSize>
    <mode>BASIC</mode></featureParams>
  <stageNum>18</stageNum>
  <stages>
    <!-- stage 0 -->
    <_>
      <maxWeakCount>4</maxWeakCount>
      <stageThreshold>-1.9455926418304443e+00</stageThreshold>
      <weakClassifiers>
        <_>
          <internalNodes>
            0 -1 27 -1.9690159708261490e-02</internalNodes>
          <leafValues>
            1.0112359374761581e-01 -9.2771083116531372e-01</leafValues></_>
        <_>
          <internalNodes>
            0 -1 96 5.1050230860710144e-02</internalNodes>
          <leafValues>
            -8.0495524406433105e-01 4.2627212405204773e-01</leafValues></_>
        <_>
          <internalNodes>
            0 -1 1 -1.1572875082492828e-02</internalNodes>
          <leafValues>
            6.8825227022171021e-01 -6.0697484016418457e-01</leafValues></_>
        <_>
          <internalNodes>
            0 -1 23 -2.5461794808506966e-02</internalNodes>
          <leafValues>
            6.2767773866653442e-01 -6.3478606939315796e-01</leafValues></_></weakClassifiers></_>
    <!-- stage 1 -->
    <_>
      <maxWeakCount>5</maxWeakCount>
      <stageThreshold>-2.3270041942596436e+00</stageThreshold>
      <weakClassifiers>
        <_>
          <internalNodes>
            0 -1 26 -8.6246266961097717e-02</internalNodes>
          <leafValues>
            -3.0985915660858154e-01 -9.2364794015884399e-01</leafValues></_>
        <_>
          <internalNodes>
            0 -1 21 -1.1466702446341515e-02</internalNodes>
          <leafValues>
            1.7341852188110352e-01 -8.4861034154891968e-01</leafValues></_>
        <_>
          <internalNodes>
            0 -1 13 -3.6497205495834351e-02</internalNodes>
          <leafValues>
            4.0554580092430115e-01 -5.9670609235763550e-01</leafValues></_>
        <_>
          <internalNodes>
            0 -1 102 9.2971790581941605e-03</internalNodes>
          <leafValues>
            -6.5347766876220703e-01 4.1516208648681641e-01</leafValues></_>
        <_>
          <internalNodes>
            0 -1 90 -5.7341186329722404e-03</internalNodes>
          <leafValues>
            5.7592487335205078e-01 -3.7320193648338318e-01</leafValues></_></weakClassifiers></_>
    <!-- stage 2 -->
    <_>
      <maxWeakCount>3</maxWeakCount>
      <stageThreshold>-1.3173288106918335e+00</stageThreshold>
      <weakClassifiers>
        <_>
          <internalNodes>
            0 -1 8 -2.9477657750248909e-02</internalNodes>
          <leafValues>
            2.3809523880481720e-01 -8.8686484098434448e-01</leafValues></_>
        <_>
          <internalNodes>
            0 -1 85 -1.6482142731547356e-02</internalNodes>
          <leafValues>
            3.3992803096771240e-01 -7.5226819515228271e-01</leafValues></_>
        <_>
          <internalNodes>
            0 -1 14 -3.9089009165763855e-02</internalNodes>
          <leafValues>
            3.2180413603782654e-01 -7.1566593647003174e-01</leafValues></_></weakClassifiers></_>
    <!-- stage 3 -->
    <_>
      <maxWeakCount>6</maxWeakCount>
      <stageThreshold>-1.9285827875137329e+00</stageThreshold>
      <weakClassifiers>
        <_>
          <internalNodes>
            0 -1 116 3.0470442026853561e-02</internalNodes>
          <leafValues>
            -8.8516747951507568e-01 2.5000000000000000e-01</leafValues></_>
        <_>
          <internalNodes>
            0 -1 2 -4.3602727353572845e-02</internalNodes>
          <leafValues>
            -2.0695365965366364e-02 -7.9940617084503174e-01</leafValues></_>
        <_>
          <internalNodes>
            0 -1 49 -1.2388262897729874e-02</internalNodes>
          <leafValues>
            5.2942311763763428e-01 -4.3261381983757019e-01</leafValues></_>
        <_>
          <internalNodes>
            0 -1 100 3.5236622352385893e-05</internalNodes>
          <leafValues>
            -5.8190596103668213e-01 3.2966458797454834e-01</leafValues></_>
        <_>
          <internalNodes>
            0 -1 0 -9.9924532696604729e-03</internalNodes>
          <leafValues>
            6.6950207948684692e-01 -3.0717828869819641e-01</leafValues></_>
        <_>
          <internalNodes>
            0 -1 4 2.1063990890979767e-02</internalNodes>
          <leafValues>
            2.9897812008857727e-01 -8.4391927719116211e-01</leafValues></_></weakClassifiers></_>
    <!-- stage 4 -->
    <_>
      <maxWeakCount>5</maxWeakCount>
      <stageThreshold>-1.6400388479232788e+00</stageThreshold>
      <weakClassifiers>
        <_>
          <internalNodes>
            0 -1 82 7.9493820667266846e-02</internalNodes>
          <leafValues>
            -8.7066543102264404e-01 7.7777779102325439e-01</leafValues></_>
        <_>
          <internalNodes>
            0 -1 16 -5.7048117741942406e-03</internalNodes>
          <leafValues>
            3.4201499819755554e-01 -6.4188587665557861e-01</leafValues></_>
        <_>
          <internalNodes>
            0 -1 22 -4.1813351213932037e-02</internalNodes>
          <leafValues>
            -8.4622156620025635e-01 2.1107159554958344e-01</leafValues></_>
        <_>
          <internalNodes>
            0 -1 34 -5.8550450950860977e-02</internalNodes>
          <leafValues>
            3.8827064633369446e-01 -4.8231127858161926e-01</leafValues></_>
        <_>
          <internalNodes>
            0 -1 88 -3.8727102801203728e-03</internalNodes>
          <leafValues>
            -9.2709487676620483e-01 2.1714445948600769e-01</leafValues></_></weakClassifiers></_>
    <!-- stage 5 -->
    <_>
      <maxWeakCount>7</maxWeakCount>
      <stageThreshold>-2.1910104751586914e+00</stageThreshold>
      <weakClassifiers>
        <_>
          <internalNodes>
            0 -1 84 3.3424556255340576e-02</internalNodes>
          <leafValues>
            -8.6206895112991333e-01 8.3333331346511841e-01</leafValues></_>
        <_>
          <internalNodes>
            0 -1 46 4.1994053870439529e-02</internalNodes>
          <leafValues>
            -6.7805463075637817e-01 2.2795896232128143e-01</leafValues></_>
        <_>
          <internalNodes>
            0 -1 3 -3.5642948001623154e-02</internalNodes>
          <leafValues>
            5.3500205278396606e-01 -3.8802975416183472e-01</leafValues></_>
        <_>
          <internalNodes>
            0 -1 110 3.1501310877501965e-03</internalNodes>
          <leafValues>
            2.3312652111053467e-01 -7.1640914678573608e-01</leafValues></_>
        <_>
          <internalNodes>
            0 -1 114 2.1957745775580406e-03</internalNodes>
          <leafValues>
            -3.2227641344070435e-01 5.3404247760772705e-01</leafValues></_>
        <_>
          <internalNodes>
            0 -1 44 -3.9280676282942295e-03</internalNodes>
          <leafValues>
            4.4553399085998535e-01 -4.0253651142120361e-01</leafValues></_>
        <_>
          <internalNodes>
            0 -1 78 -1.9008526578545570e-03</internalNodes>
          <leafValues>
            -8.6191588640213013e-01 2.2882930934429169e-01</leafValues></_></weakClassifiers></_>
    <!-- stage 6 -->
    <_>
      <maxWeakCount>7</maxWeakCount>
      <stageThreshold>-1.8579976558685303e+00</stageThreshold>
      <weakClassifiers>
        <_>
          <internalNodes>
            0 -1 56 1.0477688163518906e-01</internalNodes>
          <leafValues>
            -8.7005650997161865e-01 3.9130434393882751e-01</leafValues></_>
        <_>
          <internalNodes>
            0 -1 99 -1.4561060816049576e-02</internalNodes>
          <leafValues>
            4.6565216034650803e-02 -7.1650856733322144e-01</leafValues></_>
        <_>
          <internalNodes>
            0 -1 94 5.2765351720154285e-03</internalNodes>
          <leafValues>
            -4.6716356277465820e-01 3.1129622459411621e-01</leafValues></_>
        <_>
          <internalNodes>
            0 -1 32 7.4327355250716209e-03</internalNodes>
          <leafValues>
            -4.3382194638252258e-01 3.9271041750907898e-01</leafValues></_>
        <_>
          <internalNodes>
            0 -1 47 1.6114471945911646e-03</internalNodes>
          <leafValues>
            1.8631345033645630e-01 -9.3118476867675781e-01</leafValues></_>
        <_>
          <internalNodes>
            0 -1 39 -4.9618529155850410e-03</internalNodes>
          <leafValues>
            3.1578424572944641e-01 -4.7456637024879456e-01</leafValues></_>
        <_>
          <internalNodes>
            0 -1 95 2.5401110760867596e-03</internalNodes>
          <leafValues>
            1.3934603333473206e-01 -9.4199496507644653e-01</leafValues></_></weakClassifiers></_>
    <!-- stage 7 -->
    <_>
      <maxWeakCount>7</maxWeakCount>
      <stageThreshold>-2.0259077548980713e+00</stageThreshold>
      <weakClassifiers>
        <_>
          <internalNodes>
            0 -1 38 3.3940054476261139e-02</internalNodes>
          <leafValues>
            -8.7547892332077026e-01 -2.4390242993831635e-02</leafValues></_>
        <_>
          <internalNodes>
            0 -1 15 -3.9977226406335831e-03</internalNodes>
          <leafValues>
            1.3635814189910889e-01 -6.4909255504608154e-01</leafValues></_>
        <_>
          <internalNodes>
            0 -1 108 -1.3988928869366646e-02</internalNodes>
          <leafValues>
            -8.8100004196166992e-01 1.1940639466047287e-01</leafValues></_>
        <_>
          <internalNodes>
            0 -1 28 -1.2008378282189369e-02</internalNodes>
          <leafValues>
            2.7933290600776672e-01 -4.9470052123069763e-01</leafValues></_>
        <_>
          <internalNodes>
            0 -1 105 2.7961164712905884e-02</internalNodes>
          <leafValues>
            2.6150473952293396e-01 -7.9495894908905029e-01</leafValues></_>
        <_>
          <internalNodes>
            0 -1 35 1.8665948300622404e-04</internalNodes>
          <leafValues>
            1.5673474967479706e-01 -6.9671851396560669e-01</leafValues></_>
        <_>
          <internalNodes>
            0 -1 75 6.0239236336201429e-04</internalNodes>
          <leafValues>
            -5.4428166151046753e-01 2.6170995831489563e-01</leafValues></_></weakClassifiers></_>
    <!-- stage 8 -->
    <_>
      <maxWeakCount>8</maxWeakCount>
      <stageThreshold>-1.9549854993820190e+00</stageThreshold>
      <weakClassifiers>
        <_>
          <internalNodes>
            0 -1 24 1.4837342500686646e-01</internalNodes>
          <leafValues>
            -8.6355137825012207e-01 6.0000002384185791e-01</leafValues></_>
        <_>
          <internalNodes>
            0 -1 117 1.5751432627439499e-02</internalNodes>
          <leafValues>
            -5.4289031028747559e-01 4.8554208874702454e-01</leafValues></_>
        <_>
          <internalNodes>
            0 -1 92 7.6178880408406258e-03</internalNodes>
          <leafValues>
            -3.9282712340354919e-01 3.6616528034210205e-01</leafValues></_>
        <_>
          <internalNodes>
            0 -1 50 -3.0272075673565269e-04</internalNodes>
          <leafValues>
            2.9043582081794739e-01 -4.7449284791946411e-01</leafValues></_>
        <_>
          <internalNodes>
            0 -1 106 3.6648989189416170e-03</internalNodes>
          <leafValues>
            -3.9183261990547180e-01 3.7202844023704529e-01</leafValues></_>
        <_>
          <internalNodes>
            0 -1 118 2.9119730461388826e-03</internalNodes>
          <leafValues>
            2.7883067727088928e-01 -6.5663236379623413e-01</leafValues></_>
        <_>
          <internalNodes>
            0 -1 104 -5.3917448967695236e-03</internalNodes>
          <leafValues>
            2.6738059520721436e-01 -5.4589980840682983e-01</leafValues></_>
        <_>
          <internalNodes>
            0 -1 101 1.5788743621669710e-04</internalNodes>
          <leafValues>
            -6.0053116083145142e-01 2.8308430314064026e-01</leafValues></_></weakClassifiers></_>
    <!-- stage 9 -->
    <_>
      <maxWeakCount>6</maxWeakCount>
      <stageThreshold>-1.5198043584823608e+00</stageThreshold>
      <weakClassifiers>
        <_>
          <internalNodes>
            0 -1 72 1.1109475791454315e-01</internalNodes>
          <leafValues>
            -8.6491554975509644e-01 3.6842104792594910e-01</leafValues></_>
        <_>
          <internalNodes>
            0 -1 45 -1.1655798181891441e-02</internalNodes>
          <leafValues>
            2.9171258211135864e-01 -5.5270326137542725e-01</leafValues></_>
        <_>
          <internalNodes>
            0 -1 36 -9.6800597384572029e-04</internalNodes>
          <leafValues>
            -8.1488788127899170e-01 1.4570967853069305e-01</leafValues></_>
        <_>
          <internalNodes>
            0 -1 68 -1.2688463553786278e-02</internalNodes>
          <leafValues>
            -8.9838176965713501e-01 1.2815055251121521e-01</leafValues></_>
        <_>
          <internalNodes>
            0 -1 109 -2.6098098605871201e-03</internalNodes>
          <leafValues>
            4.3584302067756653e-01 -3.3924329280853271e-01</leafValues></_>
        <_>
          <internalNodes>
            0 -1 79 -4.0371133945882320e-04</internalNodes>
          <leafValues>
            -8.1188875436782837e-01 2.2691576182842255e-01</leafValues></_></weakClassifiers></_>
    <!-- stage 10 -->
    <_>
      <maxWeakCount>7</maxWeakCount>
      <stageThreshold>-1.6678092479705811e+00</stageThreshold>
      <weakClassifiers>
        <_>
          <internalNodes>
            0 -1 74 -2.9628474265336990e-02</internalNodes>
          <leafValues>
            3.0303031206130981e-02 -8.7072241306304932e-01</leafValues></_>
        <_>
          <internalNodes>
            0 -1 7 -4.4806804507970810e-03</internalNodes>
          <leafValues>
            2.6166731119155884e-01 -5.6712633371353149e-01</leafValues></_>
        <_>
          <internalNodes>
            0 -1 55 -5.0785774365067482e-03</internalNodes>
          <leafValues>
            2.1462406218051910e-01 -5.1266831159591675e-01</leafValues></_>
        <_>
          <internalNodes>
            0 -1 54 -3.1273670028895140e-03</internalNodes>
          <leafValues>
            5.0856095552444458e-01 -2.6137128472328186e-01</leafValues></_>
        <_>
          <internalNodes>
            0 -1 58 1.3166901771910489e-04</internalNodes>
          <leafValues>
            2.0375831425189972e-01 -6.5707391500473022e-01</leafValues></_>
        <_>
          <internalNodes>
            0 -1 81 1.0584299452602863e-03</internalNodes>
          <leafValues>
            -4.6278804540634155e-01 3.1975594162940979e-01</leafValues></_>
        <_>
          <internalNodes>
            0 -1 97 1.2354570208117366e-04</internalNodes>
          <leafValues>
            1.9018557667732239e-01 -7.0672744512557983e-01</leafValues></_></weakClassifiers></_>
    <!-- stage 11 -->
    <_>
      <maxWeakCount>7</maxWeakCount>
      <stageThreshold>-1.7506226301193237e+00</stageThreshold>
      <weakClassifiers>
        <_>
          <internalNodes>
            0 -1 41 2.6826754212379456e-02</internalNodes>
          <leafValues>
            -8.6168223619461060e-01 4.6666666865348816e-01</leafValues></_>
        <_>
          <internalNodes>
            0 -1 12 -2.4485629983246326e-03</internalNodes>
          <leafValues>
            -1.8275262787938118e-02 -6.8763530254364014e-01</leafValues></_>
        <_>
          <internalNodes>
            0 -1 69 -4.2757263872772455e-04</internalNodes>
          <leafValues>
            -8.5422021150588989e-01 7.2527118027210236e-02</leafValues></_>
        <_>
          <internalNodes>
            0 -1 86 -1.3981631025671959e-02</internalNodes>
          <leafValues>
            3.4996625781059265e-01 -3.8058295845985413e-01</leafValues></_>
        <_>
          <internalNodes>
            0 -1 83 1.6252115601673722e-03</internalNodes>
          <leafValues>
            2.2078377008438110e-01 -6.0153073072433472e-01</leafValues></_>
        <_>
          <internalNodes>
            0 -1 65 -1.0923537192866206e-03</internalNodes>
          <leafValues>
            2.8843027353286743e-01 -4.5234099030494690e-01</leafValues></_>
        <_>
          <internalNodes>
            0 -1 10 -3.1536705791950226e-03</internalNodes>
          <leafValues>
            5.4242920875549316e-01 -2.4950885772705078e-01</leafValues></_></weakClassifiers></_>
    <!-- stage 12 -->
    <_>
      <maxWeakCount>8</maxWeakCount>
      <stageThreshold>-2.1365051269531250e+00</stageThreshold>
      <weakClassifiers>
        <_>
          <internalNodes>
            0 -1 9 1.5020141005516052e-01</internalNodes>
          <leafValues>
            -8.6033517122268677e-01 8.1818181276321411e-01</leafValues></_>
        <_>
          <internalNodes>
            0 -1 6 7.4282456189393997e-03</internalNodes>
          <leafValues>
            -5.6406027078628540e-01 1.7383031547069550e-01</leafValues></_>
        <_>
          <internalNodes>
            0 -1 31 -4.3056577444076538e-02</internalNodes>
          <leafValues>
            3.4602651000022888e-01 -3.7719613313674927e-01</leafValues></_>
        <_>
          <internalNodes>
            0 -1 43 -9.6026225946843624e-04</internalNodes>
          <leafValues>
            -4.8935392498970032e-01 3.1062975525856018e-01</leafValues></_>
        <_>
          <internalNodes>
            0 -1 11 -4.8869927413761616e-03</internalNodes>
          <leafValues>
            -8.5089957714080811e-01 1.5382565557956696e-01</leafValues></_>
        <_>
          <internalNodes>
            0 -1 33 1.5481323003768921e-02</internalNodes>
          <leafValues>
            1.7320835590362549e-01 -7.8216785192489624e-01</leafValues></_>
        <_>
          <internalNodes>
            0 -1 61 -5.3296685218811035e-03</internalNodes>
          <leafValues>
            3.8615292310714722e-01 -3.7681245803833008e-01</leafValues></_>
        <_>
          <internalNodes>
            0 -1 103 9.7166304476559162e-04</internalNodes>
          <leafValues>
            -7.4034786224365234e-01 2.0421893894672394e-01</leafValues></_></weakClassifiers></_>
    <!-- stage 13 -->
    <_>
      <maxWeakCount>8</maxWeakCount>
      <stageThreshold>-1.9748591184616089e+00</stageThreshold>
      <weakClassifiers>
        <_>
          <internalNodes>
            0 -1 53 2.0254382491111755e-01</internalNodes>
          <leafValues>
            -8.6367881298065186e-01 7.1428573131561279e-01</leafValues></_>
        <_>
          <internalNodes>
            0 -1 37 -1.0750938206911087e-02</internalNodes>
          <leafValues>
            9.0448394417762756e-02 -6.0894817113876343e-01</leafValues></_>
        <_>
          <internalNodes>
            0 -1 20 4.9426583573222160e-03</internalNodes>
          <leafValues>
            6.2010452151298523e-02 -9.7159582376480103e-01</leafValues></_>
        <_>
          <internalNodes>
            0 -1 112 -1.8090780824422836e-02</internalNodes>
          <leafValues>
            7.7758622169494629e-01 -1.5300515294075012e-01</leafValues></_>
        <_>
          <internalNodes>
            0 -1 62 -7.6561339665204287e-04</internalNodes>
          <leafValues>
            3.3835715055465698e-01 -3.7647515535354614e-01</leafValues></_>
        <_>
          <internalNodes>
            0 -1 66 2.5792447850108147e-03</internalNodes>
          <leafValues>
            1.4292845129966736e-01 -8.0374258756637573e-01</leafValues></_>
        <_>
          <internalNodes>
            0 -1 113 -2.0044676959514618e-02</internalNodes>
          <leafValues>
            -7.4532818794250488e-01 1.3521093130111694e-01</leafValues></_>
        <_>
          <internalNodes>
            0 -1 77 -1.4952768106013536e-03</internalNodes>
          <leafValues>
            3.9971277117729187e-01 -3.1290161609649658e-01</leafValues></_></weakClassifiers></_>
    <!-- stage 14 -->
    <_>
      <maxWeakCount>8</maxWeakCount>
      <stageThreshold>-2.0212230682373047e+00</stageThreshold>
      <weakClassifiers>
        <_>
          <internalNodes>
            0 -1 93 -3.2013088464736938e-02</internalNodes>
          <leafValues>
            3.0000001192092896e-01 -8.6478871107101440e-01</leafValues></_>
        <_>
          <internalNodes>
            0 -1 40 -4.0542609058320522e-03</internalNodes>
          <leafValues>
            2.6876956224441528e-01 -5.4857259988784790e-01</leafValues></_>
        <_>
          <internalNodes>
            0 -1 107 1.1856690049171448e-02</internalNodes>
          <leafValues>
            -3.2013460993766785e-01 4.1502153873443604e-01</leafValues></_>
        <_>
          <internalNodes>
            0 -1 73 1.6004468780010939e-03</internalNodes>
          <leafValues>
            1.4770904183387756e-01 -8.3308392763137817e-01</leafValues></_>
        <_>
          <internalNodes>
            0 -1 115 9.6868679975159466e-05</internalNodes>
          <leafValues>
            2.3770497739315033e-01 -5.7135313749313354e-01</leafValues></_>
        <_>
          <internalNodes>
            0 -1 51 -8.3570461720228195e-03</internalNodes>
          <leafValues>
            3.3064955472946167e-01 -4.3520614504814148e-01</leafValues></_>
        <_>
          <internalNodes>
            0 -1 98 -1.4138542610453442e-05</internalNodes>
          <leafValues>
            3.1303325295448303e-01 -4.0026381611824036e-01</leafValues></_>
        <_>
          <internalNodes>
            0 -1 67 -6.4222551882266998e-03</internalNodes>
          <leafValues>
            -7.0608460903167725e-01 1.6232873499393463e-01</leafValues></_></weakClassifiers></_>
    <!-- stage 15 -->
    <_>
      <maxWeakCount>7</maxWeakCount>
      <stageThreshold>-1.5986361503601074e+00</stageThreshold>
      <weakClassifiers>
        <_>
          <internalNodes>
            0 -1 64 7.0890799164772034e-02</internalNodes>
          <leafValues>
            -8.6491554975509644e-01 3.6842104792594910e-01</leafValues></_>
        <_>
          <internalNodes>
            0 -1 30 -9.2881284654140472e-03</internalNodes>
          <leafValues>
            2.1435563266277313e-01 -5.6777149438858032e-01</leafValues></_>
        <_>
          <internalNodes>
            0 -1 59 -3.0108328908681870e-02</internalNodes>
          <leafValues>
            4.6342322230339050e-01 -3.3696401119232178e-01</leafValues></_>
        <_>
          <internalNodes>
            0 -1 70 -3.6952336085960269e-04</internalNodes>
          <leafValues>
            3.4948420524597168e-01 -4.0650239586830139e-01</leafValues></_>
        <_>
          <internalNodes>
            0 -1 87 -7.2202393785119057e-03</internalNodes>
          <leafValues>
            5.5738323926925659e-01 -2.2338840365409851e-01</leafValues></_>
        <_>
          <internalNodes>
            0 -1 48 -3.1919996254146099e-03</internalNodes>
          <leafValues>
            4.0625166893005371e-01 -3.1727200746536255e-01</leafValues></_>
        <_>
          <internalNodes>
            0 -1 63 -1.7010273877531290e-03</internalNodes>
          <leafValues>
            3.6219108104705811e-01 -3.3778563141822815e-01</leafValues></_></weakClassifiers></_>
    <!-- stage 16 -->
    <_>
      <maxWeakCount>8</maxWeakCount>
      <stageThreshold>-1.8607722520828247e+00</stageThreshold>
      <weakClassifiers>
        <_>
          <internalNodes>
            0 -1 60 3.0108553171157837e-01</internalNodes>
          <leafValues>
            -8.6033517122268677e-01 8.1818181276321411e-01</leafValues></_>
        <_>
          <internalNodes>
            0 -1 89 7.3217168450355530e-02</internalNodes>
          <leafValues>
            -6.4688497781753540e-01 -4.8423010855913162e-02</leafValues></_>
        <_>
          <internalNodes>
            0 -1 29 -3.1086981296539307e-02</internalNodes>
          <leafValues>
            4.6495044231414795e-01 -2.8960642218589783e-01</leafValues></_>
        <_>
          <internalNodes>
            0 -1 76 1.6237299889326096e-02</internalNodes>
          <leafValues>
            1.7893810570240021e-01 -7.4810916185379028e-01</leafValues></_>
        <_>
          <internalNodes>
            0 -1 17 5.5850949138402939e-04</internalNodes>
          <leafValues>
            1.7834354937076569e-01 -6.5972375869750977e-01</leafValues></_>
        <_>
          <internalNodes>
            0 -1 42 -9.1287884861230850e-03</internalNodes>
          <leafValues>
            6.2768673896789551e-01 -2.2046793997287750e-01</leafValues></_>
        <_>
          <internalNodes>
            0 -1 18 1.2851225619670004e-04</internalNodes>
          <leafValues>
            2.2796513140201569e-01 -5.3194355964660645e-01</leafValues></_>
        <_>
          <internalNodes>
            0 -1 111 1.6885249351616949e-05</internalNodes>
          <leafValues>
            -4.1101431846618652e-01 3.3118420839309692e-01</leafValues></_></weakClassifiers></_>
    <!-- stage 17 -->
    <_>
      <maxWeakCount>8</maxWeakCount>
      <stageThreshold>-1.7911869287490845e+00</stageThreshold>
      <weakClassifiers>
        <_>
          <internalNodes>
            0 -1 25 -1.1207026243209839e-01</internalNodes>
          <leafValues>
            5.8823529630899429e-02 -8.7250238656997681e-01</leafValues></_>
        <_>
          <internalNodes>
            0 -1 80 -2.8233702323632315e-05</internalNodes>
          <leafValues>
            -6.8855427205562592e-02 -6.3667565584182739e-01</leafValues></_>
        <_>
          <internalNodes>
            0 -1 52 -2.0499992388067767e-05</internalNodes>
          <leafValues>
            2.1895031630992889e-01 -4.8089769482612610e-01</leafValues></_>
        <_>
          <internalNodes>
            0 -1 5 6.8383518373593688e-04</internalNodes>
          <leafValues>
            1.6126272082328796e-01 -7.2387892007827759e-01</leafValues></_>
        <_>
          <internalNodes>
            0 -1 57 4.7723073512315750e-03</internalNodes>
          <leafValues>
            -2.3226396739482880e-01 5.8222746849060059e-01</leafValues></_>
        <_>
          <internalNodes>
            0 -1 71 8.3582522347569466e-03</internalNodes>
          <leafValues>
            2.4685096740722656e-01 -5.8721488714218140e-01</leafValues></_>
        <_>
          <internalNodes>
            0 -1 91 3.5096390638500452e-04</internalNodes>
          <leafValues>
            -3.6911323666572571e-01 3.5895389318466187e-01</leafValues></_>
        <_>
          <internalNodes>
            0 -1 19 -2.5986945256590843e-03</internalNodes>
          <leafValues>
            4.8340049386024475e-01 -3.0769571661949158e-01</leafValues></_></weakClassifiers></_></stages>
  <features>
    <_>
      <rects>
        <_>
          0 0 2 13 -1.</_>
        <_>
          1 0 1 13 2.</_></rects>
      <tilted>0</tilted></_>
    <_>
      <rects>
        <_>
          0 0 2 24 -1.</_>
        <_>
          1 0 1 24 2.</_></rects>
      <tilted>0</tilted></_>
    <_>
      <rects>
        <_>
          0 0 12 10 -1.</_>
        <_>
          6 0 6 10 2.</_></rects>
      <tilted>0</tilted></_>
    <_>
      <rects>
        <_>
          0 0 11 6 -1.</_>
        <_>
          0 2 11 2 3.</_></rects>
      <tilted>0</tilted></_>
    <_>
      <rects>
        <_>
          0 1 4 20 -1.</_>
        <_>
          0 11 4 10 2.</_></rects>
      <tilted>0</tilted></_>
    <_>
      <rects>
        <_>
          0 1 6 2 -1.</_>
        <_>
          0 2 6 1 2.</_></rects>
      <tilted>0</tilted></_>
    <_>
      <rects>
        <_>
          0 1 14 2 -1.</_>
        <_>
          0 1 7 1 2.</_>
        <_>
          7 2 7 1 2.</_></rects>
      <tilted>0</tilted></_>
    <_>
      <rects>
        <_>
          0 2 2 3 -1.</_>
        <_>
          1 2 1 3 2.</_></rects>
      <tilted>0</tilted></_>
    <_>
      <rects>
        <_>
          0 2 3 17 -1.</_>
        <_>
          1 2 1 17 3.</_></rects>
      <tilted>0</tilted></_>
    <_>
      <rects>
        <_>
          0 9 24 4 -1.</_>
        <_>
          8 9 8 4 3.</_></rects>
      <tilted>0</tilted></_>
    <_>
      <rects>
        <_>
          0 10 2 3 -1.</_>
        <_>
          1 10 1 3 2.</_></rects>
      <tilted>0</tilted></_>
    <_>
      <rects>
        <_>
          0 13 1 10 -1.</_>
        <_>
          0 18 1 5 2.</_></rects>
      <tilted>0</tilted></_>
    <_>
      <rects>
        <_>
          0 14 4 6 -1.</_>
        <_>
          0 14 2 3 2.</_>
        <_>
          2 17 2 3 2.</_></rects>
      <tilted>0</tilted></_>
    <_>
      <rects>
        <_>
          0 14 10 9 -1.</_>
        <_>
          5 14 5 9 2.</_></rects>
      <tilted>0</tilted></_>
    <_>
      <rects>
        <_>
          0 14 21 5 -1.</_>
        <_>
          7 14 7 5 3.</_></rects>
      <tilted>0</tilted></_>
    <_>
      <rects>
        <_>
          0 16 2 4 -1.</_>
        <_>
          1 16 1 4 2.</_></rects>
      <tilted>0</tilted></_>
    <_>
      <rects>
        <_>
          0 16 2 5 -1.</_>
        <_>
          1 16 1 5 2.</_></rects>
      <tilted>0</tilted></_>
    <_>
      <rects>
        <_>
          0 18 1 3 -1.</_>
        <_>
          0 19 1 1 3.</_></rects>
      <tilted>0</tilted></_>
    <_>
      <rects>
        <_>
          0 20 1 3 -1.</_>
        <_>
          0 21 1 1 3.</_></rects>
      <tilted>0</tilted></_>
    <_>
      <rects>
        <_>
          0 20 2 4 -1.</_>
        <_>
          1 20 1 4 2.</_></rects>
      <tilted>0</tilted></_>
    <_>
      <rects>
        <_>
          0 20 6 4 -1.</_>
        <_>
          3 20 3 4 2.</_></rects>
      <tilted>0</tilted></_>
    <_>
      <rects>
        <_>
          1 0 22 2 -1.</_>
        <_>
          1 1 22 1 2.</_></rects>
      <tilted>0</tilted></_>
    <_>
      <rects>
        <_>
          1 5 7 16 -1.</_>
        <_>
          1 13 7 8 2.</_></rects>
      <tilted>0</tilted></_>
    <_>
      <rects>
        <_>
          1 7 18 3 -1.</_>
        <_>
          7 7 6 3 3.</_></rects>
      <tilted>0</tilted></_>
    <_>
      <rects>
        <_>
          1 10 21 5 -1.</_>
        <_>
          8 10 7 5 3.</_></rects>
      <tilted>0</tilted></_>
    <_>
      <rects>
        <_>
          1 13 12 9 -1.</_>
        <_>
          1 16 12 3 3.</_></rects>
      <tilted>0</tilted></_>
    <_>
      <rects>
        <_>
          1 15 21 9 -1.</_>
        <_>
          1 18 21 3 3.</_></rects>
      <tilted>0</tilted></_>
    <_>
      <rects>
        <_>
          2 0 17 2 -1.</_>
        <_>
          2 1 17 1 2.</_></rects>
      <tilted>0</tilted></_>
    <_>
      <rects>
        <_>
          2 0 22 2 -1.</_>
        <_>
          2 1 22 1 2.</_></rects>
      <tilted>0</tilted></_>
    <_>
      <rects>
        <_>
          2 2 6 18 -1.</_>
        <_>
          4 2 2 18 3.</_></rects>
      <tilted>0</tilted></_>
    <_>
      <rects>
        <_>
          2 5 6 6 -1.</_>
        <_>
          2 5 3 3 2.</_>
        <_>
          5 8 3 3 2.</_></rects>
      <tilted>0</tilted></_>
    <_>
      <rects>
        <_>
          2 7 12 10 -1.</_>
        <_>
          6 7 4 10 3.</_></rects>
      <tilted>0</tilted></_>
    <_>
      <rects>
        <_>
          2 8 13 6 -1.</_>
        <_>
          2 11 13 3 2.</_></rects>
      <tilted>0</tilted></_>
    <_>
      <rects>
        <_>
          2 11 3 12 -1.</_>
        <_>
          2 17 3 6 2.</_></rects>
      <tilted>0</tilted></_>
    <_>
      <rects>
        <_>
          2 15 20 9 -1.</_>
        <_>
          2 18 20 3 3.</_></rects>
      <tilted>0</tilted></_>
    <_>
      <rects>
        <_>
          3 0 2 2 -1.</_>
        <_>
          4 0 1 2 2.</_></rects>
      <tilted>0</tilted></_>
    <_>
      <rects>
        <_>
          3 0 3 2 -1.</_>
        <_>
          4 0 1 2 3.</_></rects>
      <tilted>0</tilted></_>
    <_>
      <rects>
        <_>
          3 0 8 2 -1.</_>
        <_>
          3 1 8 1 2.</_></rects>
      <tilted>0</tilted></_>
    <_>
      <rects>
        <_>
          3 3 3 9 -1.</_>
        <_>
          3 6 3 3 3.</_></rects>
      <tilted>0</tilted></_>
    <_>
      <rects>
        <_>
          3 5 6 17 -1.</_>
        <_>
          5 5 2 17 3.</_></rects>
      <tilted>0</tilted></_>
    <_>
      <rects>
        <_>
          3 5 6 2 -1.</_>
        <_>
          3 5 3 1 2.</_>
        <_>
          6 6 3 1 2.</_></rects>
      <tilted>0</tilted></_>
    <_>
      <rects>
        <_>
          3 11 8 2 -1.</_>
        <_>
          7 11 4 2 2.</_></rects>
      <tilted>0</tilted></_>
    <_>
      <rects>
        <_>
          3 16 2 6 -1.</_>
        <_>
          3 18 2 2 3.</_></rects>
      <tilted>0</tilted></_>
    <_>
      <rects>
        <_>
          4 2 9 1 -1.</_>
        <_>
          7 2 3 1 3.</_></rects>
      <tilted>0</tilted></_>
    <_>
      <rects>
        <_>
          4 5 10 4 -1.</_>
        <_>
          4 5 5 2 2.</_>
        <_>
          9 7 5 2 2.</_></rects>
      <tilted>0</tilted></_>
    <_>
      <rects>
        <_>
          4 15 4 4 -1.</_>
        <_>
          4 17 4 2 2.</_></rects>
      <tilted>0</tilted></_>
    <_>
      <rects>
        <_>
          4 18 15 6 -1.</_>
        <_>
          4 21 15 3 2.</_></rects>
      <tilted>0</tilted></_>
    <_>
      <rects>
        <_>
          5 0 4 2 -1.</_>
        <_>
          7 0 2 2 2.</_></rects>
      <tilted>0</tilted></_>
    <_>
      <rects>
        <_>
          5 0 3 3 -1.</_>
        <_>
          5 1 3 1 3.</_></rects>
      <tilted>0</tilted></_>
    <_>
      <rects>
        <_>
          5 0 13 3 -1.</_>
        <_>
          5 1 13 1 3.</_></rects>
      <tilted>0</tilted></_>
    <_>
      <rects>
        <_>
          5 1 2 8 -1.</_>
        <_>
          5 1 1 4 2.</_>
        <_>
          6 5 1 4 2.</_></rects>
      <tilted>0</tilted></_>
    <_>
      <rects>
        <_>
          5 15 3 9 -1.</_>
        <_>
          5 18 3 3 3.</_></rects>
      <tilted>0</tilted></_>
    <_>
      <rects>
        <_>
          6 1 3 9 -1.</_>
        <_>
          7 1 1 9 3.</_></rects>
      <tilted>0</tilted></_>
    <_>
      <rects>
        <_>
          6 4 8 15 -1.</_>
        <_>
          6 9 8 5 3.</_></rects>
      <tilted>0</tilted></_>
    <_>
      <rects>
        <_>
          6 5 4 3 -1.</_>
        <_>
          6 6 4 1 3.</_></rects>
      <tilted>0</tilted></_>
    <_>
      <rects>
        <_>
          6 7 18 1 -1.</_>
        <_>
          12 7 6 1 3.</_></rects>
      <tilted>0</tilted></_>
    <_>
      <rects>
        <_>
          6 8 8 9 -1.</_>
        <_>
          6 11 8 3 3.</_></rects>
      <tilted>0</tilted></_>
    <_>
      <rects>
        <_>
          6 12 4 8 -1.</_>
        <_>
          8 12 2 8 2.</_></rects>
      <tilted>0</tilted></_>
    <_>
      <rects>
        <_>
          7 0 2 1 -1.</_>
        <_>
          8 0 1 1 2.</_></rects>
      <tilted>0</tilted></_>
    <_>
      <rects>
        <_>
          7 1 8 9 -1.</_>
        <_>
          7 4 8 3 3.</_></rects>
      <tilted>0</tilted></_>
    <_>
      <rects>
        <_>
          7 6 14 12 -1.</_>
        <_>
          7 10 14 4 3.</_></rects>
      <tilted>0</tilted></_>
    <_>
      <rects>
        <_>
          7 7 6 6 -1.</_>
        <_>
          7 9 6 2 3.</_></rects>
      <tilted>0</tilted></_>
    <_>
      <rects>
        <_>
          7 10 6 6 -1.</_>
        <_>
          7 10 3 3 2.</_>
        <_>
          10 13 3 3 2.</_></rects>
      <tilted>0</tilted></_>
    <_>
      <rects>
        <_>
          7 15 9 1 -1.</_>
        <_>
          10 15 3 1 3.</_></rects>
      <tilted>0</tilted></_>
    <_>
      <rects>
        <_>
          7 15 8 9 -1.</_>
        <_>
          7 18 8 3 3.</_></rects>
      <tilted>0</tilted></_>
    <_>
      <rects>
        <_>
          7 18 2 6 -1.</_>
        <_>
          7 20 2 2 3.</_></rects>
      <tilted>0</tilted></_>
    <_>
      <rects>
        <_>
          8 0 6 3 -1.</_>
        <_>
          10 0 2 3 3.</_></rects>
      <tilted>0</tilted></_>
    <_>
      <rects>
        <_>
          8 3 4 18 -1.</_>
        <_>
          8 3 2 9 2.</_>
        <_>
          10 12 2 9 2.</_></rects>
      <tilted>0</tilted></_>
    <_>
      <rects>
        <_>
          8 7 8 10 -1.</_>
        <_>
          8 7 4 5 2.</_>
        <_>
          12 12 4 5 2.</_></rects>
      <tilted>0</tilted></_>
    <_>
      <rects>
        <_>
          9 1 2 1 -1.</_>
        <_>
          10 1 1 1 2.</_></rects>
      <tilted>0</tilted></_>
    <_>
      <rects>
        <_>
          9 4 2 20 -1.</_>
        <_>
          9 4 1 10 2.</_>
        <_>
          10 14 1 10 2.</_></rects>
      <tilted>0</tilted></_>
    <_>
      <rects>
        <_>
          9 6 6 16 -1.</_>
        <_>
          9 6 3 8 2.</_>
        <_>
          12 14 3 8 2.</_></rects>
      <tilted>0</tilted></_>
    <_>
      <rects>
        <_>
          9 8 6 9 -1.</_>
        <_>
          9 11 6 3 3.</_></rects>
      <tilted>0</tilted></_>
    <_>
      <rects>
        <_>
          9 16 3 5 -1.</_>
        <_>
          10 16 1 5 3.</_></rects>
      <tilted>0</tilted></_>
    <_>
      <rects>
        <_>
          9 16 12 4 -1.</_>
        <_>
          9 16 6 2 2.</_>
        <_>
          15 18 6 2 2.</_></rects>
      <tilted>0</tilted></_>
    <_>
      <rects>
        <_>
          9 22 9 2 -1.</_>
        <_>
          9 23 9 1 2.</_></rects>
      <tilted>0</tilted></_>
    <_>
      <rects>
        <_>
          10 6 2 18 -1.</_>
        <_>
          10 12 2 6 3.</_></rects>
      <tilted>0</tilted></_>
    <_>
      <rects>
        <_>
          10 15 1 6 -1.</_>
        <_>
          10 17 1 2 3.</_></rects>
      <tilted>0</tilted></_>
    <_>
      <rects>
        <_>
          10 20 4 3 -1.</_>
        <_>
          12 20 2 3 2.</_></rects>
      <tilted>0</tilted></_>
    <_>
      <rects>
        <_>
          10 21 3 1 -1.</_>
        <_>
          11 21 1 1 3.</_></rects>
      <tilted>0</tilted></_>
    <_>
      <rects>
        <_>
          10 23 2 1 -1.</_>
        <_>
          11 23 1 1 2.</_></rects>
      <tilted>0</tilted></_>
    <_>
      <rects>
        <_>
          11 4 8 6 -1.</_>
        <_>
          11 4 4 3 2.</_>
        <_>
          15 7 4 3 2.</_></rects>
      <tilted>0</tilted></_>
    <_>
      <rects>
        <_>
          11 8 5 9 -1.</_>
        <_>
          11 11 5 3 3.</_></rects>
      <tilted>0</tilted></_>
    <_>
      <rects>
        <_>
          12 0 2 24 -1.</_>
        <_>
          12 0 1 12 2.</_>
        <_>
          13 12 1 12 2.</_></rects>
      <tilted>0</tilted></_>
    <_>
      <rects>
        <_>
          12 6 1 12 -1.</_>
        <_>
          12 10 1 4 3.</_></rects>
      <tilted>0</tilted></_>
    <_>
      <rects>
        <_>
          13 0 7 4 -1.</_>
        <_>
          13 2 7 2 2.</_></rects>
      <tilted>0</tilted></_>
    <_>
      <rects>
        <_>
          13 0 9 6 -1.</_>
        <_>
          13 2 9 2 3.</_></rects>
      <tilted>0</tilted></_>
    <_>
      <rects>
        <_>
          13 13 10 4 -1.</_>
        <_>
          13 13 5 2 2.</_>
        <_>
          18 15 5 2 2.</_></rects>
      <tilted>0</tilted></_>
    <_>
      <rects>
        <_>
          13 22 8 2 -1.</_>
        <_>
          17 22 4 2 2.</_></rects>
      <tilted>0</tilted></_>
    <_>
      <rects>
        <_>
          14 3 10 12 -1.</_>
        <_>
          19 3 5 12 2.</_></rects>
      <tilted>0</tilted></_>
    <_>
      <rects>
        <_>
          15 11 6 2 -1.</_>
        <_>
          17 11 2 2 3.</_></rects>
      <tilted>0</tilted></_>
    <_>
      <rects>
        <_>
          15 13 2 5 -1.</_>
        <_>
          16 13 1 5 2.</_></rects>
      <tilted>0</tilted></_>
    <_>
      <rects>
        <_>
          15 13 8 6 -1.</_>
        <_>
          15 15 8 2 3.</_></rects>
      <tilted>0</tilted></_>
    <_>
      <rects>
        <_>
          15 14 6 8 -1.</_>
        <_>
          15 14 3 4 2.</_>
        <_>
          18 18 3 4 2.</_></rects>
      <tilted>0</tilted></_>
    <_>
      <rects>
        <_>
          15 20 4 4 -1.</_>
        <_>
          15 22 4 2 2.</_></rects>
      <tilted>0</tilted></_>
    <_>
      <rects>
        <_>
          15 21 6 2 -1.</_>
        <_>
          17 21 2 2 3.</_></rects>
      <tilted>0</tilted></_>
    <_>
      <rects>
        <_>
          16 9 8 14 -1.</_>
        <_>
          20 9 4 14 2.</_></rects>
      <tilted>0</tilted></_>
    <_>
      <rects>
        <_>
          16 10 2 2 -1.</_>
        <_>
          16 10 1 1 2.</_>
        <_>
          17 11 1 1 2.</_></rects>
      <tilted>0</tilted></_>
    <_>
      <rects>
        <_>
          16 11 2 1 -1.</_>
        <_>
          17 11 1 1 2.</_></rects>
      <tilted>0</tilted></_>
    <_>
      <rects>
        <_>
          17 1 5 9 -1.</_>
        <_>
          17 4 5 3 3.</_></rects>
      <tilted>0</tilted></_>
    <_>
      <rects>
        <_>
          17 7 2 1 -1.</_>
        <_>
          18 7 1 1 2.</_></rects>
      <tilted>0</tilted></_>
    <_>
      <rects>
        <_>
          18 11 2 6 -1.</_>
        <_>
          19 11 1 6 2.</_></rects>
      <tilted>0</tilted></_>
    <_>
      <rects>
        <_>
          18 17 6 7 -1.</_>
        <_>
          21 17 3 7 2.</_></rects>
      <tilted>0</tilted></_>
    <_>
      <rects>
        <_>
          18 19 6 2 -1.</_>
        <_>
          21 19 3 2 2.</_></rects>
      <tilted>0</tilted></_>
    <_>
      <rects>
        <_>
          19 0 5 12 -1.</_>
        <_>
          19 4 5 4 3.</_></rects>
      <tilted>0</tilted></_>
    <_>
      <rects>
        <_>
          19 0 5 22 -1.</_>
        <_>
          19 11 5 11 2.</_></rects>
      <tilted>0</tilted></_>
    <_>
      <rects>
        <_>
          19 2 2 13 -1.</_>
        <_>
          20 2 1 13 2.</_></rects>
      <tilted>0</tilted></_>
    <_>
      <rects>
        <_>
          20 1 4 9 -1.</_>
        <_>
          22 1 2 9 2.</_></rects>
      <tilted>0</tilted></_>
    <_>
      <rects>
        <_>
          20 7 4 10 -1.</_>
        <_>
          20 12 4 5 2.</_></rects>
      <tilted>0</tilted></_>
    <_>
      <rects>
        <_>
          21 2 3 6 -1.</_>
        <_>
          22 2 1 6 3.</_></rects>
      <tilted>0</tilted></_>
    <_>
      <rects>
        <_>
          21 7 1 14 -1.</_>
        <_>
          21 14 1 7 2.</_></rects>
      <tilted>0</tilted></_>
    <_>
      <rects>
        <_>
          21 8 2 2 -1.</_>
        <_>
          21 9 2 1 2.</_></rects>
      <tilted>0</tilted></_>
    <_>
      <rects>
        <_>
          21 9 3 10 -1.</_>
        <_>
          22 9 1 10 3.</_></rects>
      <tilted>0</tilted></_>
    <_>
      <rects>
        <_>
          22 1 2 22 -1.</_>
        <_>
          22 12 2 11 2.</_></rects>
      <tilted>0</tilted></_>
    <_>
      <rects>
        <_>
          22 2 2 4 -1.</_>
        <_>
          23 2 1 4 2.</_></rects>
      <tilted>0</tilted></_>
    <_>
      <rects>
        <_>
          22 3 1 2 -1.</_>
        <_>
          22 4 1 1 2.</_></rects>
      <tilted>0</tilted></_>
    <_>
      <rects>
        <_>
          22 5 2 18 -1.</_>
        <_>
          23 5 1 18 2.</_></rects>
      <tilted>0</tilted></_>
    <_>
      <rects>
        <_>
          22 10 2 12 -1.</_>
        <_>
          23 10 1 12 2.</_></rects>
      <tilted>0</tilted></_>
    <_>
      <rects>
        <_>
          23 6 1 18 -1.</_>
        <_>
          23 12 1 6 3.</_></rects>
      <tilted>0</tilted></_></features></cascade>
</opencv_storage>
